<?xml version="1.0"?>
<opencv_storage>
<stage6>
  <maxWeakCount>7</maxWeakCount>
  <stageThreshold>-1.1375181674957275e+00</stageThreshold>
  <weakClassifiers>
    <_>
      <internalNodes>
        0 -1 2070 1.8350608646869659e-02</internalNodes>
      <leafValues>
        -6.4923894405364990e-01 6.7218047380447388e-01</leafValues></_>
    <_>
      <internalNodes>
        0 -1 307813 1.2891268357634544e-02</internalNodes>
      <leafValues>
        -4.4913759827613831e-01 5.8945727348327637e-01</leafValues></_>
    <_>
      <internalNodes>
        0 -1 11 3.5523530095815659e-04</internalNodes>
      <leafValues>
        -5.3835952281951904e-01 4.3453401327133179e-01</leafValues></_>
    <_>
      <internalNodes>
        0 -1 138697 1.1768748052418232e-02</internalNodes>
      <leafValues>
        -2.4715632200241089e-01 8.2643729448318481e-01</leafValues></_>
    <_>
      <internalNodes>
        0 -1 561231 1.0038591921329498e-02</internalNodes>
      <leafValues>
        -2.7613916993141174e-01 6.4986974000930786e-01</leafValues></_>
    <_>
      <internalNodes>
        0 -1 246431 -5.8449544012546539e-02</internalNodes>
      <leafValues>
        6.8860822916030884e-01 -2.8130781650543213e-01</leafValues></_>
    <_>
      <internalNodes>
        0 -1 324413 5.7796435430645943e-04</internalNodes>
      <leafValues>
        -5.0494635105133057e-01 3.7781226634979248e-01</leafValues></_></weakClassifiers></stage6>
</opencv_storage>
