<?xml version="1.0"?>
<opencv_storage>
<stage7>
  <maxWeakCount>9</maxWeakCount>
  <stageThreshold>-1.6236391067504883e+00</stageThreshold>
  <weakClassifiers>
    <_>
      <internalNodes>
        0 -1 2070 2.1871432662010193e-02</internalNodes>
      <leafValues>
        -6.0026043653488159e-01 6.3984674215316772e-01</leafValues></_>
    <_>
      <internalNodes>
        0 -1 589366 -1.3014619238674641e-02</internalNodes>
      <leafValues>
        5.0593429803848267e-01 -4.7619324922561646e-01</leafValues></_>
    <_>
      <internalNodes>
        0 -1 365738 4.0673734620213509e-03</internalNodes>
      <leafValues>
        -4.2084750533103943e-01 4.7574350237846375e-01</leafValues></_>
    <_>
      <internalNodes>
        0 -1 436817 1.3591758906841278e-03</internalNodes>
      <leafValues>
        -6.0973078012466431e-01 3.2448726892471313e-01</leafValues></_>
    <_>
      <internalNodes>
        0 -1 2072 2.8512267395853996e-02</internalNodes>
      <leafValues>
        -3.3208107948303223e-01 5.2958703041076660e-01</leafValues></_>
    <_>
      <internalNodes>
        0 -1 138729 6.4997468143701553e-03</internalNodes>
      <leafValues>
        -2.9154637455940247e-01 6.8235570192337036e-01</leafValues></_>
    <_>
      <internalNodes>
        0 -1 338683 -3.1936890445649624e-03</internalNodes>
      <leafValues>
        -7.6351767778396606e-01 2.3243473470211029e-01</leafValues></_>
    <_>
      <internalNodes>
        0 -1 9462 6.7331646569073200e-03</internalNodes>
      <leafValues>
        -6.9834667444229126e-01 2.7393716573715210e-01</leafValues></_>
    <_>
      <internalNodes>
        0 -1 163003 1.9653797149658203e-02</internalNodes>
      <leafValues>
        -3.3356964588165283e-01 6.0355979204177856e-01</leafValues></_></weakClassifiers></stage7>
</opencv_storage>
