<?xml version="1.0"?>
<opencv_storage>
<stage6>
  <maxWeakCount>5</maxWeakCount>
  <stageThreshold>-9.1220390796661377e-01</stageThreshold>
  <weakClassifiers>
    <_>
      <internalNodes>
        0 -1 20107 -537919538 -134217746 -1025 -1241515009 -2049 -5377
        -33554433 -1057</internalNodes>
      <leafValues>
        -6.3517916202545166e-01 6.6921901702880859e-01</leafValues></_>
    <_>
      <internalNodes>
        0 -1 24702 -1181707820 -1085004963 1393850367 -1086748579
        -291598337 -38157431 1000345599 -1075238513</internalNodes>
      <leafValues>
        -6.3477563858032227e-01 5.8966040611267090e-01</leafValues></_>
    <_>
      <internalNodes>
        0 -1 2305 -67108881 -1570243601 -422231838 1793639183 -506811977
        1863522463 -23346265 -16779265</internalNodes>
      <leafValues>
        -6.7000532150268555e-01 5.5556803941726685e-01</leafValues></_>
    <_>
      <internalNodes>
        0 -1 2754 -871626500 -2569761 -1990554146 -300638046 -1149608707
        -5258103 -323195393 -359134471</internalNodes>
      <leafValues>
        -7.6689893007278442e-01 4.9054372310638428e-01</leafValues></_>
    <_>
      <internalNodes>
        0 -1 28546 -42928292 -40116277 1360386551 -16163489 -1947604293
        -56933655 -236287493 -1074906335</internalNodes>
      <leafValues>
        -6.5535432100296021e-01 5.7556110620498657e-01</leafValues></_></weakClassifiers></stage6>
</opencv_storage>
