<?xml version="1.0"?>
<opencv_storage>
<cascade>
  <stageType>BOOST</stageType>
  <featureType>LBP</featureType>
  <height>46</height>
  <width>24</width>
  <stageParams>
    <boostType>GAB</boostType>
    <minHitRate>9.9500000476837158e-01</minHitRate>
    <maxFalseAlarm>5.0000000000000000e-01</maxFalseAlarm>
    <weightTrimRate>9.4999998807907104e-01</weightTrimRate>
    <maxDepth>1</maxDepth>
    <maxWeakCount>100</maxWeakCount></stageParams>
  <featureParams>
    <maxCatCount>256</maxCatCount>
    <featSize>1</featSize></featureParams>
  <stageNum>11</stageNum>
  <stages>
    <!-- stage 0 -->
    <_>
      <maxWeakCount>3</maxWeakCount>
      <stageThreshold>-8.6911064386367798e-01</stageThreshold>
      <weakClassifiers>
        <_>
          <internalNodes>
            0 -1 24 -2097665 -8695161 1994111487 -551577185 -269755137
            1911138799 2142975471 872358715</internalNodes>
          <leafValues>
            -8.2773363590240479e-01 6.9131237268447876e-01</leafValues></_>
        <_>
          <internalNodes>
            0 -1 18 -466289667 -33554433 -167903233 -4210757 -50872321
            -1073741825 -419495937 -513</internalNodes>
          <leafValues>
            -6.0863137245178223e-01 7.9487353563308716e-01</leafValues></_>
        <_>
          <internalNodes>
            0 -1 8 -161483777 2144543055 -1817079369 -1491206793
            -1887069201 319545507 -132399169 603595259</internalNodes>
          <leafValues>
            -7.9080724716186523e-01 5.6725442409515381e-01</leafValues></_></weakClassifiers></_>
    <!-- stage 1 -->
    <_>
      <maxWeakCount>3</maxWeakCount>
      <stageThreshold>-8.2472562789916992e-01</stageThreshold>
      <weakClassifiers>
        <_>
          <internalNodes>
            0 -1 22 -1089433192 -4206183 -1258014017 -1076285027
            -391448065 -73790566 -1147225921 -1074849608</internalNodes>
          <leafValues>
            -7.7152699232101440e-01 7.2122389078140259e-01</leafValues></_>
        <_>
          <internalNodes>
            0 -1 15 -5179436 -1113598115 -618930689 -2115125 -1148262145
            -1095794517 -1521755141 -1074806933</internalNodes>
          <leafValues>
            -6.8741780519485474e-01 6.9156897068023682e-01</leafValues></_>
        <_>
          <internalNodes>
            0 -1 41 -152571162 -942941077 -1060973536 -83502689
            1683088143 83976195 1636024757 -134217729</internalNodes>
          <leafValues>
            -7.0697408914566040e-01 6.3421916961669922e-01</leafValues></_></weakClassifiers></_>
    <!-- stage 2 -->
    <_>
      <maxWeakCount>3</maxWeakCount>
      <stageThreshold>-7.6722621917724609e-01</stageThreshold>
      <weakClassifiers>
        <_>
          <internalNodes>
            0 -1 26 -17 -8388609 -17727058 -20497 -878710785 -16409
            -176177493 -1069393</internalNodes>
          <leafValues>
            -6.4413517713546753e-01 8.0324202775955200e-01</leafValues></_>
        <_>
          <internalNodes>
            0 -1 9 -152043538 -209401526 -435494720 -229651969
            -700345396 115847 -185353747 -705168385</internalNodes>
          <leafValues>
            -6.9754153490066528e-01 6.6135424375534058e-01</leafValues></_>
        <_>
          <internalNodes>
            0 -1 16 680532476 -1078092323 -675432577 -1082321669
            186399231 -8158565 -68625473 -1128777377</internalNodes>
          <leafValues>
            -7.2567427158355713e-01 5.7445049285888672e-01</leafValues></_></weakClassifiers></_>
    <!-- stage 3 -->
    <_>
      <maxWeakCount>3</maxWeakCount>
      <stageThreshold>-8.0199056863784790e-01</stageThreshold>
      <weakClassifiers>
        <_>
          <internalNodes>
            0 -1 0 -890245426 -2004172352 -2145157118 -1970302909
            -911489649 -938753789 -521938285 -807403569</internalNodes>
          <leafValues>
            -7.9089790582656860e-01 6.5609192848205566e-01</leafValues></_>
        <_>
          <internalNodes>
            0 -1 34 -75497473 -537264129 -66952 -2 1297937597 2138374075
            -578945028 -1</internalNodes>
          <leafValues>
            -6.0182505846023560e-01 8.1358009576797485e-01</leafValues></_>
        <_>
          <internalNodes>
            0 -1 11 -488119646 1200091427 1378025986 -204032550
            1124451146 1174882347 -1065094465 -201327617</internalNodes>
          <leafValues>
            -7.0681887865066528e-01 5.9073239564895630e-01</leafValues></_></weakClassifiers></_>
    <!-- stage 4 -->
    <_>
      <maxWeakCount>4</maxWeakCount>
      <stageThreshold>-1.4989188909530640e+00</stageThreshold>
      <weakClassifiers>
        <_>
          <internalNodes>
            0 -1 31 -498866425 -144184855 -134749729 -748158993
            -143130641 -311427113 -136839201 -143130681</internalNodes>
          <leafValues>
            -6.0517156124114990e-01 7.5865924358367920e-01</leafValues></_>
        <_>
          <internalNodes>
            0 -1 6 -343740674 -20801385 1897579007 -806247956 -92184577
            -542555971 -339000065 -4240609</internalNodes>
          <leafValues>
            -6.1827945709228516e-01 6.2975198030471802e-01</leafValues></_>
        <_>
          <internalNodes>
            0 -1 32 2134900735 -108046387 1493298655 -8670754 -156632129
            1963743771 -1345374665 1004482088</internalNodes>
          <leafValues>
            -7.6785033941268921e-01 5.0710779428482056e-01</leafValues></_>
        <_>
          <internalNodes>
            0 -1 4 -402653234 -389317945 -1030117654 -354532882
            -549749489 -594575351 -1311745 -134218757</internalNodes>
          <leafValues>
            -7.8257560729980469e-01 4.8884677886962891e-01</leafValues></_></weakClassifiers></_>
    <!-- stage 5 -->
    <_>
      <maxWeakCount>5</maxWeakCount>
      <stageThreshold>-7.0417481660842896e-01</stageThreshold>
      <weakClassifiers>
        <_>
          <internalNodes>
            0 -1 19 -68878337 -50006019 -536875011 -1610613251 -1
            -1651376131 -4161 -262145</internalNodes>
          <leafValues>
            -5.5679184198379517e-01 8.1630170345306396e-01</leafValues></_>
        <_>
          <internalNodes>
            0 -1 3 -49 -944787505 -487609726 101641903 -536870961
            -1342193665 -1006639189 -805310481</internalNodes>
          <leafValues>
            -6.0732007026672363e-01 7.1138787269592285e-01</leafValues></_>
        <_>
          <internalNodes>
            0 -1 10 -3146770 2105998058 -767459166 -220725433 -49939572
            1090830683 -515507489 -236453921</internalNodes>
          <leafValues>
            -6.9700545072555542e-01 5.9817445278167725e-01</leafValues></_>
        <_>
          <internalNodes>
            0 -1 42 -17 -272249917 -479214112 -791940665 1942745927
            1113714706 -204705049 -134743113</internalNodes>
          <leafValues>
            -5.9373801946640015e-01 6.6197401285171509e-01</leafValues></_>
        <_>
          <internalNodes>
            0 -1 13 -1082877473 1600131541 -581566979 1059623636
            -771162627 -72588341 -85223176 673460184</internalNodes>
          <leafValues>
            -8.0550873279571533e-01 4.9496850371360779e-01</leafValues></_></weakClassifiers></_>
    <!-- stage 6 -->
    <_>
      <maxWeakCount>5</maxWeakCount>
      <stageThreshold>-9.1220390796661377e-01</stageThreshold>
      <weakClassifiers>
        <_>
          <internalNodes>
            0 -1 23 -537919538 -134217746 -1025 -1241515009 -2049 -5377
            -33554433 -1057</internalNodes>
          <leafValues>
            -6.3517916202545166e-01 6.6921901702880859e-01</leafValues></_>
        <_>
          <internalNodes>
            0 -1 36 -1181707820 -1085004963 1393850367 -1086748579
            -291598337 -38157431 1000345599 -1075238513</internalNodes>
          <leafValues>
            -6.3477563858032227e-01 5.8966040611267090e-01</leafValues></_>
        <_>
          <internalNodes>
            0 -1 5 -67108881 -1570243601 -422231838 1793639183
            -506811977 1863522463 -23346265 -16779265</internalNodes>
          <leafValues>
            -6.7000532150268555e-01 5.5556803941726685e-01</leafValues></_>
        <_>
          <internalNodes>
            0 -1 7 -871626500 -2569761 -1990554146 -300638046
            -1149608707 -5258103 -323195393 -359134471</internalNodes>
          <leafValues>
            -7.6689893007278442e-01 4.9054372310638428e-01</leafValues></_>
        <_>
          <internalNodes>
            0 -1 38 -42928292 -40116277 1360386551 -16163489 -1947604293
            -56933655 -236287493 -1074906335</internalNodes>
          <leafValues>
            -6.5535432100296021e-01 5.7556110620498657e-01</leafValues></_></weakClassifiers></_>
    <!-- stage 7 -->
    <_>
      <maxWeakCount>4</maxWeakCount>
      <stageThreshold>-1.4725532531738281e+00</stageThreshold>
      <weakClassifiers>
        <_>
          <internalNodes>
            0 -1 2 2097184 -145403111 17826653 -4622507 -1936934401
            -19035493 -1945192197 -132645</internalNodes>
          <leafValues>
            -8.1856840848922729e-01 5.4225939512252808e-01</leafValues></_>
        <_>
          <internalNodes>
            0 -1 29 -201326625 357892088 2143207098 2146761980 -33591425
            1549025277 -8390657 -1</internalNodes>
          <leafValues>
            -6.2857353687286377e-01 6.7266511917114258e-01</leafValues></_>
        <_>
          <internalNodes>
            0 -1 33 -688129 -2097681 -780938785 -42486865 1339293693
            1063747982 -352330769 804661247</internalNodes>
          <leafValues>
            -7.4059206247329712e-01 4.7944191098213196e-01</leafValues></_>
        <_>
          <internalNodes>
            0 -1 43 -1048849 -470814721 -85463070 -72351753 -143132857
            1190985575 -134223881 -135792841</internalNodes>
          <leafValues>
            -5.8605796098709106e-01 6.3192600011825562e-01</leafValues></_></weakClassifiers></_>
    <!-- stage 8 -->
    <_>
      <maxWeakCount>5</maxWeakCount>
      <stageThreshold>-8.4506434202194214e-01</stageThreshold>
      <weakClassifiers>
        <_>
          <internalNodes>
            0 -1 28 -723524113 -104857665 -234881025 -167772225
            -721420289 -33607697 -721420289 -775948337</internalNodes>
          <leafValues>
            -5.2226346731185913e-01 7.7021276950836182e-01</leafValues></_>
        <_>
          <internalNodes>
            0 -1 44 268435456 -203425953 -686300875 -11535426 -78909696
            -55328561 -374617854 -1311749</internalNodes>
          <leafValues>
            -8.0102652311325073e-01 4.7917330265045166e-01</leafValues></_>
        <_>
          <internalNodes>
            0 -1 35 -1 1602093055 -214096 -196625 1566359037 2136768381
            -134889512 -270600705</internalNodes>
          <leafValues>
            -5.3979879617691040e-01 6.4140033721923828e-01</leafValues></_>
        <_>
          <internalNodes>
            0 -1 40 -39847985 1601436462 -111467894 -774667633
            -207884375 934775823 -16043605 364881919</internalNodes>
          <leafValues>
            -7.1873450279235840e-01 4.6586707234382629e-01</leafValues></_>
        <_>
          <internalNodes>
            0 -1 20 192229649 1966054087 -749111087 1466662813 -70518101
            -41205108 -343224322 -1074916199</internalNodes>
          <leafValues>
            -5.9664660692214966e-01 5.5215728282928467e-01</leafValues></_></weakClassifiers></_>
    <!-- stage 9 -->
    <_>
      <maxWeakCount>5</maxWeakCount>
      <stageThreshold>-8.6522507667541504e-01</stageThreshold>
      <weakClassifiers>
        <_>
          <internalNodes>
            0 -1 17 -21694468 -9 -10369 -131073 -269221889 -540278785
            -262145 -270561297</internalNodes>
          <leafValues>
            -5.8758550882339478e-01 6.6210526227951050e-01</leafValues></_>
        <_>
          <internalNodes>
            0 -1 39 -251659314 1150207883 -1034947520 -170142753
            -266413489 1359565079 -136316933 -134742017</internalNodes>
          <leafValues>
            -6.3953864574432373e-01 5.3831118345260620e-01</leafValues></_>
        <_>
          <internalNodes>
            0 -1 14 41171965 -1625876003 -712683073 -2108461 -611714113
            -7345525 -628107041 -1073828867</internalNodes>
          <leafValues>
            -6.0331213474273682e-01 5.5506938695907593e-01</leafValues></_>
        <_>
          <internalNodes>
            0 -1 30 -1052272062 -141977257 -67415045 1931964895
            -1997809957 -67908049 1707330255 1162213211</internalNodes>
          <leafValues>
            -7.9163604974746704e-01 4.2173555493354797e-01</leafValues></_>
        <_>
          <internalNodes>
            0 -1 37 12524851 902928887 1578464767 -9702941 -401937009
            -1079326069 -1442259715 -1107543681</internalNodes>
          <leafValues>
            -5.7938414812088013e-01 5.9015685319900513e-01</leafValues></_></weakClassifiers></_>
    <!-- stage 10 -->
    <_>
      <maxWeakCount>5</maxWeakCount>
      <stageThreshold>-9.5740902423858643e-01</stageThreshold>
      <weakClassifiers>
        <_>
          <internalNodes>
            0 -1 25 -2105426 -615263841 -76067858 -738764481 -610016545
            -140531477 -67108865 -134225921</internalNodes>
          <leafValues>
            -6.9116741418838501e-01 5.7745188474655151e-01</leafValues></_>
        <_>
          <internalNodes>
            0 -1 1 237129460 -16025185 -617166977 -291585979 -74712897
            -88098645 -1414534401 -5809161</internalNodes>
          <leafValues>
            -7.2967523336410522e-01 4.8092687129974365e-01</leafValues></_>
        <_>
          <internalNodes>
            0 -1 21 712909877 -3418693 -551349097 -778340645 -607441953
            -350493543 -1081267237 -70977</internalNodes>
          <leafValues>
            -6.3282990455627441e-01 5.2696245908737183e-01</leafValues></_>
        <_>
          <internalNodes>
            0 -1 12 -337649714 -1560028925 1384172772 -528362631
            -226235665 57265739 -158991117 -135790609</internalNodes>
          <leafValues>
            -6.4089453220367432e-01 5.8225679397583008e-01</leafValues></_>
        <_>
          <internalNodes>
            0 -1 27 270475939 -217329651 967014589 -581306465
            -1280578069 -611917613 -659496754 -790245437</internalNodes>
          <leafValues>
            -5.9345555305480957e-01 5.2655589580535889e-01</leafValues></_></weakClassifiers></_></stages>
  <features>
    <_>
      <rect>
        0 0 1 13</rect></_>
    <_>
      <rect>
        0 0 2 1</rect></_>
    <_>
      <rect>
        0 0 8 1</rect></_>
    <_>
      <rect>
        0 13 1 7</rect></_>
    <_>
      <rect>
        0 14 1 2</rect></_>
    <_>
      <rect>
        0 27 1 2</rect></_>
    <_>
      <rect>
        0 33 4 1</rect></_>
    <_>
      <rect>
        0 43 3 1</rect></_>
    <_>
      <rect>
        1 16 5 5</rect></_>
    <_>
      <rect>
        3 4 1 7</rect></_>
    <_>
      <rect>
        3 12 1 4</rect></_>
    <_>
      <rect>
        3 19 1 7</rect></_>
    <_>
      <rect>
        3 27 1 4</rect></_>
    <_>
      <rect>
        5 19 3 2</rect></_>
    <_>
      <rect>
        6 0 1 1</rect></_>
    <_>
      <rect>
        6 9 4 2</rect></_>
    <_>
      <rect>
        6 10 2 1</rect></_>
    <_>
      <rect>
        6 32 1 2</rect></_>
    <_>
      <rect>
        7 9 2 2</rect></_>
    <_>
      <rect>
        7 30 2 3</rect></_>
    <_>
      <rect>
        8 20 1 3</rect></_>
    <_>
      <rect>
        8 22 1 6</rect></_>
    <_>
      <rect>
        8 33 3 1</rect></_>
    <_>
      <rect>
        9 6 2 5</rect></_>
    <_>
      <rect>
        9 14 4 6</rect></_>
    <_>
      <rect>
        9 16 2 1</rect></_>
    <_>
      <rect>
        9 16 2 5</rect></_>
    <_>
      <rect>
        10 0 1 7</rect></_>
    <_>
      <rect>
        10 5 1 4</rect></_>
    <_>
      <rect>
        10 28 1 5</rect></_>
    <_>
      <rect>
        11 0 1 11</rect></_>
    <_>
      <rect>
        11 3 1 5</rect></_>
    <_>
      <rect>
        11 11 4 8</rect></_>
    <_>
      <rect>
        11 17 2 4</rect></_>
    <_>
      <rect>
        11 29 1 4</rect></_>
    <_>
      <rect>
        11 31 1 3</rect></_>
    <_>
      <rect>
        12 10 2 1</rect></_>
    <_>
      <rect>
        14 21 2 2</rect></_>
    <_>
      <rect>
        15 32 1 2</rect></_>
    <_>
      <rect>
        18 8 1 3</rect></_>
    <_>
      <rect>
        18 17 1 4</rect></_>
    <_>
      <rect>
        19 20 1 8</rect></_>
    <_>
      <rect>
        19 26 1 3</rect></_>
    <_>
      <rect>
        19 27 1 3</rect></_>
    <_>
      <rect>
        21 0 1 1</rect></_></features></cascade>
</opencv_storage>
