<?xml version="1.0"?>
<opencv_storage>
<cascade>
  <stageType>BOOST</stageType>
  <featureType>HAAR</featureType>
  <height>48</height>
  <width>24</width>
  <stageParams>
    <boostType>GAB</boostType>
    <minHitRate>9.9500000476837158e-01</minHitRate>
    <maxFalseAlarm>5.0000000000000000e-01</maxFalseAlarm>
    <weightTrimRate>9.4999998807907104e-01</weightTrimRate>
    <maxDepth>1</maxDepth>
    <maxWeakCount>100</maxWeakCount></stageParams>
  <featureParams>
    <maxCatCount>0</maxCatCount>
    <featSize>1</featSize>
    <mode>BASIC</mode></featureParams>
  <stageNum>20</stageNum>
  <stages>
    <!-- stage 0 -->
    <_>
      <maxWeakCount>2</maxWeakCount>
      <stageThreshold>4.5454546809196472e-02</stageThreshold>
      <weakClassifiers>
        <_>
          <internalNodes>
            0 -1 18 4.0791006758809090e-03</internalNodes>
          <leafValues>
            -9.5454543828964233e-01 9.5454543828964233e-01</leafValues></_>
        <_>
          <internalNodes>
            0 -1 26 6.0975719243288040e-03</internalNodes>
          <leafValues>
            -8.1734144687652588e-01 1.</leafValues></_></weakClassifiers></_>
    <!-- stage 1 -->
    <_>
      <maxWeakCount>2</maxWeakCount>
      <stageThreshold>-7.9588793218135834e-02</stageThreshold>
      <weakClassifiers>
        <_>
          <internalNodes>
            0 -1 29 -4.3224603869020939e-03</internalNodes>
          <leafValues>
            9.5238095521926880e-01 -8.6956518888473511e-01</leafValues></_>
        <_>
          <internalNodes>
            0 -1 32 -2.2696364670991898e-02</internalNodes>
          <leafValues>
            7.8997641801834106e-01 -8.4286749362945557e-01</leafValues></_></weakClassifiers></_>
    <!-- stage 2 -->
    <_>
      <maxWeakCount>2</maxWeakCount>
      <stageThreshold>-1.5584504604339600e-01</stageThreshold>
      <weakClassifiers>
        <_>
          <internalNodes>
            0 -1 11 -5.8605363592505455e-03</internalNodes>
          <leafValues>
            7.0833331346511841e-01 -8.5000002384185791e-01</leafValues></_>
        <_>
          <internalNodes>
            0 -1 22 8.0059403553605080e-03</internalNodes>
          <leafValues>
            -8.6417835950851440e-01 7.8804886341094971e-01</leafValues></_></weakClassifiers></_>
    <!-- stage 3 -->
    <_>
      <maxWeakCount>3</maxWeakCount>
      <stageThreshold>-7.4470448493957520e-01</stageThreshold>
      <weakClassifiers>
        <_>
          <internalNodes>
            0 -1 5 6.1389831826090813e-03</internalNodes>
          <leafValues>
            -6.3265305757522583e-01 7.9487180709838867e-01</leafValues></_>
        <_>
          <internalNodes>
            0 -1 30 1.0171179659664631e-02</internalNodes>
          <leafValues>
            -7.2390294075012207e-01 7.4135595560073853e-01</leafValues></_>
        <_>
          <internalNodes>
            0 -1 20 6.1857409309595823e-04</internalNodes>
          <leafValues>
            -9.4829970598220825e-01 6.1185151338577271e-01</leafValues></_></weakClassifiers></_>
    <!-- stage 4 -->
    <_>
      <maxWeakCount>2</maxWeakCount>
      <stageThreshold>1.0674619674682617e-01</stageThreshold>
      <weakClassifiers>
        <_>
          <internalNodes>
            0 -1 44 -4.2655086144804955e-03</internalNodes>
          <leafValues>
            1. -4.9152541160583496e-01</leafValues></_>
        <_>
          <internalNodes>
            0 -1 10 -8.4524409612640738e-04</internalNodes>
          <leafValues>
            6.4562928676605225e-01 -8.9325380325317383e-01</leafValues></_></weakClassifiers></_>
    <!-- stage 5 -->
    <_>
      <maxWeakCount>3</maxWeakCount>
      <stageThreshold>-5.7762861251831055e-01</stageThreshold>
      <weakClassifiers>
        <_>
          <internalNodes>
            0 -1 4 1.7168385908007622e-02</internalNodes>
          <leafValues>
            -6.8000000715255737e-01 8.9473682641983032e-01</leafValues></_>
        <_>
          <internalNodes>
            0 -1 28 -2.4082273244857788e-02</internalNodes>
          <leafValues>
            8.5786044597625732e-01 -7.1469265222549438e-01</leafValues></_>
        <_>
          <internalNodes>
            0 -1 21 3.3471183851361275e-03</internalNodes>
          <leafValues>
            -7.5767278671264648e-01 8.1856381893157959e-01</leafValues></_></weakClassifiers></_>
    <!-- stage 6 -->
    <_>
      <maxWeakCount>3</maxWeakCount>
      <stageThreshold>6.1130243539810181e-01</stageThreshold>
      <weakClassifiers>
        <_>
          <internalNodes>
            0 -1 2 -7.6179543975740671e-04</internalNodes>
          <leafValues>
            -7.9487180709838867e-01 6.3265305757522583e-01</leafValues></_>
        <_>
          <internalNodes>
            0 -1 35 -5.8698136126622558e-04</internalNodes>
          <leafValues>
            -8.8247382640838623e-01 5.9558331966400146e-01</leafValues></_>
        <_>
          <internalNodes>
            0 -1 6 -4.9553345888853073e-03</internalNodes>
          <leafValues>
            9.7366356849670410e-01 -6.1693394184112549e-01</leafValues></_></weakClassifiers></_>
    <!-- stage 7 -->
    <_>
      <maxWeakCount>2</maxWeakCount>
      <stageThreshold>4.0634024888277054e-02</stageThreshold>
      <weakClassifiers>
        <_>
          <internalNodes>
            0 -1 8 -2.0568100735545158e-03</internalNodes>
          <leafValues>
            1. -4.9152541160583496e-01</leafValues></_>
        <_>
          <internalNodes>
            0 -1 17 -1.1738492175936699e-03</internalNodes>
          <leafValues>
            -9.5936596393585205e-01 5.8291918039321899e-01</leafValues></_></weakClassifiers></_>
    <!-- stage 8 -->
    <_>
      <maxWeakCount>2</maxWeakCount>
      <stageThreshold>1.0926232486963272e-01</stageThreshold>
      <weakClassifiers>
        <_>
          <internalNodes>
            0 -1 36 7.5276196002960205e-03</internalNodes>
          <leafValues>
            -6.1538463830947876e-01 8.8888889551162720e-01</leafValues></_>
        <_>
          <internalNodes>
            0 -1 23 -1.3588990550488234e-03</internalNodes>
          <leafValues>
            7.4513268470764160e-01 -7.7962654829025269e-01</leafValues></_></weakClassifiers></_>
    <!-- stage 9 -->
    <_>
      <maxWeakCount>2</maxWeakCount>
      <stageThreshold>-4.9169775098562241e-02</stageThreshold>
      <weakClassifiers>
        <_>
          <internalNodes>
            0 -1 40 6.8800956942141056e-03</internalNodes>
          <leafValues>
            -5.7692307233810425e-01 8.3333331346511841e-01</leafValues></_>
        <_>
          <internalNodes>
            0 -1 24 5.8956374414265156e-04</internalNodes>
          <leafValues>
            -8.8250309228897095e-01 5.6603503227233887e-01</leafValues></_></weakClassifiers></_>
    <!-- stage 10 -->
    <_>
      <maxWeakCount>3</maxWeakCount>
      <stageThreshold>-5.7097214460372925e-01</stageThreshold>
      <weakClassifiers>
        <_>
          <internalNodes>
            0 -1 0 1.0665052570402622e-02</internalNodes>
          <leafValues>
            -6.0784316062927246e-01 8.3783781528472900e-01</leafValues></_>
        <_>
          <internalNodes>
            0 -1 13 4.5041507109999657e-03</internalNodes>
          <leafValues>
            -7.4453502893447876e-01 7.1514302492141724e-01</leafValues></_>
        <_>
          <internalNodes>
            0 -1 27 -2.3653265088796616e-03</internalNodes>
          <leafValues>
            8.1679791212081909e-01 -6.6427499055862427e-01</leafValues></_></weakClassifiers></_>
    <!-- stage 11 -->
    <_>
      <maxWeakCount>2</maxWeakCount>
      <stageThreshold>-2.5694182515144348e-01</stageThreshold>
      <weakClassifiers>
        <_>
          <internalNodes>
            0 -1 12 -2.3432919755578041e-02</internalNodes>
          <leafValues>
            6.3999998569488525e-01 -8.4210526943206787e-01</leafValues></_>
        <_>
          <internalNodes>
            0 -1 34 4.0961510967463255e-04</internalNodes>
          <leafValues>
            5.8516347408294678e-01 -8.8133925199508667e-01</leafValues></_></weakClassifiers></_>
    <!-- stage 12 -->
    <_>
      <maxWeakCount>2</maxWeakCount>
      <stageThreshold>9.5077551901340485e-02</stageThreshold>
      <weakClassifiers>
        <_>
          <internalNodes>
            0 -1 39 1.3814344070851803e-02</internalNodes>
          <leafValues>
            -5.0000000000000000e-01 8.7500000000000000e-01</leafValues></_>
        <_>
          <internalNodes>
            0 -1 37 1.9866088405251503e-03</internalNodes>
          <leafValues>
            -7.7992242574691772e-01 6.6082674264907837e-01</leafValues></_></weakClassifiers></_>
    <!-- stage 13 -->
    <_>
      <maxWeakCount>3</maxWeakCount>
      <stageThreshold>4.1210865974426270e-01</stageThreshold>
      <weakClassifiers>
        <_>
          <internalNodes>
            0 -1 42 -1.9675457224366255e-05</internalNodes>
          <leafValues>
            -8.7878787517547607e-01 5.2727270126342773e-01</leafValues></_>
        <_>
          <internalNodes>
            0 -1 14 -1.8212986469734460e-04</internalNodes>
          <leafValues>
            5.2010101079940796e-01 -8.7299585342407227e-01</leafValues></_>
        <_>
          <internalNodes>
            0 -1 1 -3.2838761806488037e-02</internalNodes>
          <leafValues>
            9.3367439508438110e-01 -6.3526505231857300e-01</leafValues></_></weakClassifiers></_>
    <!-- stage 14 -->
    <_>
      <maxWeakCount>1</maxWeakCount>
      <stageThreshold>5.4385966062545776e-01</stageThreshold>
      <weakClassifiers>
        <_>
          <internalNodes>
            0 -1 43 -4.8153585521504283e-04</internalNodes>
          <leafValues>
            -1. 5.4385966062545776e-01</leafValues></_></weakClassifiers></_>
    <!-- stage 15 -->
    <_>
      <maxWeakCount>2</maxWeakCount>
      <stageThreshold>-3.7535309791564941e-02</stageThreshold>
      <weakClassifiers>
        <_>
          <internalNodes>
            0 -1 25 -3.4288023598492146e-03</internalNodes>
          <leafValues>
            6.3265305757522583e-01 -7.9487180709838867e-01</leafValues></_>
        <_>
          <internalNodes>
            0 -1 38 9.7470520995557308e-04</internalNodes>
          <leafValues>
            -6.7018836736679077e-01 7.6942348480224609e-01</leafValues></_></weakClassifiers></_>
    <!-- stage 16 -->
    <_>
      <maxWeakCount>3</maxWeakCount>
      <stageThreshold>2.2364939749240875e-01</stageThreshold>
      <weakClassifiers>
        <_>
          <internalNodes>
            0 -1 33 2.9124901629984379e-04</internalNodes>
          <leafValues>
            5.5555558204650879e-01 -8.8235294818878174e-01</leafValues></_>
        <_>
          <internalNodes>
            0 -1 16 -1.7142056021839380e-03</internalNodes>
          <leafValues>
            6.1769294738769531e-01 -8.4779554605484009e-01</leafValues></_>
        <_>
          <internalNodes>
            0 -1 7 1.0503169323783368e-04</internalNodes>
          <leafValues>
            5.1588940620422363e-01 -9.3173980712890625e-01</leafValues></_></weakClassifiers></_>
    <!-- stage 17 -->
    <_>
      <maxWeakCount>2</maxWeakCount>
      <stageThreshold>-2.1108888089656830e-01</stageThreshold>
      <weakClassifiers>
        <_>
          <internalNodes>
            0 -1 41 1.6073228835011832e-05</internalNodes>
          <leafValues>
            6.2500000000000000e-01 -7.5000000000000000e-01</leafValues></_>
        <_>
          <internalNodes>
            0 -1 3 -3.0779647640883923e-03</internalNodes>
          <leafValues>
            -1. 5.3891110420227051e-01</leafValues></_></weakClassifiers></_>
    <!-- stage 18 -->
    <_>
      <maxWeakCount>2</maxWeakCount>
      <stageThreshold>-3.8266483694314957e-02</stageThreshold>
      <weakClassifiers>
        <_>
          <internalNodes>
            0 -1 31 -1.4048046432435513e-03</internalNodes>
          <leafValues>
            -7.8260868787765503e-01 8.5714286565780640e-01</leafValues></_>
        <_>
          <internalNodes>
            0 -1 19 -1.2000049464404583e-03</internalNodes>
          <leafValues>
            -8.9540934562683105e-01 8.1052500009536743e-01</leafValues></_></weakClassifiers></_>
    <!-- stage 19 -->
    <_>
      <maxWeakCount>2</maxWeakCount>
      <stageThreshold>-2.1928200125694275e-01</stageThreshold>
      <weakClassifiers>
        <_>
          <internalNodes>
            0 -1 9 -1.9033190328627825e-03</internalNodes>
          <leafValues>
            7.3913043737411499e-01 -8.0952382087707520e-01</leafValues></_>
        <_>
          <internalNodes>
            0 -1 15 -1.5277959173545241e-03</internalNodes>
          <leafValues>
            -9.5841240882873535e-01 5.9597063064575195e-01</leafValues></_></weakClassifiers></_></stages>
  <features>
    <_>
      <rects>
        <_>
          0 0 20 4 -1.</_>
        <_>
          0 2 20 2 2.</_></rects>
      <tilted>0</tilted></_>
    <_>
      <rects>
        <_>
          0 14 22 14 -1.</_>
        <_>
          0 21 22 7 2.</_></rects>
      <tilted>0</tilted></_>
    <_>
      <rects>
        <_>
          1 1 6 2 -1.</_>
        <_>
          3 1 2 2 3.</_></rects>
      <tilted>0</tilted></_>
    <_>
      <rects>
        <_>
          1 8 19 3 -1.</_>
        <_>
          1 9 19 1 3.</_></rects>
      <tilted>0</tilted></_>
    <_>
      <rects>
        <_>
          2 3 6 25 -1.</_>
        <_>
          4 3 2 25 3.</_></rects>
      <tilted>0</tilted></_>
    <_>
      <rects>
        <_>
          2 21 6 6 -1.</_>
        <_>
          4 21 2 6 3.</_></rects>
      <tilted>0</tilted></_>
    <_>
      <rects>
        <_>
          2 33 3 5 -1.</_>
        <_>
          3 33 1 5 3.</_></rects>
      <tilted>0</tilted></_>
    <_>
      <rects>
        <_>
          2 34 1 2 -1.</_>
        <_>
          2 35 1 1 2.</_></rects>
      <tilted>0</tilted></_>
    <_>
      <rects>
        <_>
          2 39 3 3 -1.</_>
        <_>
          3 39 1 3 3.</_></rects>
      <tilted>0</tilted></_>
    <_>
      <rects>
        <_>
          3 28 9 3 -1.</_>
        <_>
          6 28 3 3 3.</_></rects>
      <tilted>0</tilted></_>
    <_>
      <rects>
        <_>
          4 0 4 10 -1.</_>
        <_>
          4 0 2 5 2.</_>
        <_>
          6 5 2 5 2.</_></rects>
      <tilted>0</tilted></_>
    <_>
      <rects>
        <_>
          4 4 4 38 -1.</_>
        <_>
          6 4 2 38 2.</_></rects>
      <tilted>0</tilted></_>
    <_>
      <rects>
        <_>
          4 24 9 18 -1.</_>
        <_>
          7 24 3 18 3.</_></rects>
      <tilted>0</tilted></_>
    <_>
      <rects>
        <_>
          4 25 12 18 -1.</_>
        <_>
          4 31 12 6 3.</_></rects>
      <tilted>0</tilted></_>
    <_>
      <rects>
        <_>
          7 29 6 1 -1.</_>
        <_>
          9 29 2 1 3.</_></rects>
      <tilted>0</tilted></_>
    <_>
      <rects>
        <_>
          8 1 3 18 -1.</_>
        <_>
          9 1 1 18 3.</_></rects>
      <tilted>0</tilted></_>
    <_>
      <rects>
        <_>
          8 20 6 24 -1.</_>
        <_>
          8 20 3 12 2.</_>
        <_>
          11 32 3 12 2.</_></rects>
      <tilted>0</tilted></_>
    <_>
      <rects>
        <_>
          8 24 3 11 -1.</_>
        <_>
          9 24 1 11 3.</_></rects>
      <tilted>0</tilted></_>
    <_>
      <rects>
        <_>
          9 0 4 26 -1.</_>
        <_>
          9 0 2 13 2.</_>
        <_>
          11 13 2 13 2.</_></rects>
      <tilted>0</tilted></_>
    <_>
      <rects>
        <_>
          9 0 15 2 -1.</_>
        <_>
          14 0 5 2 3.</_></rects>
      <tilted>0</tilted></_>
    <_>
      <rects>
        <_>
          9 1 6 17 -1.</_>
        <_>
          11 1 2 17 3.</_></rects>
      <tilted>0</tilted></_>
    <_>
      <rects>
        <_>
          9 6 4 30 -1.</_>
        <_>
          9 6 2 15 2.</_>
        <_>
          11 21 2 15 2.</_></rects>
      <tilted>0</tilted></_>
    <_>
      <rects>
        <_>
          9 27 6 8 -1.</_>
        <_>
          11 27 2 8 3.</_></rects>
      <tilted>0</tilted></_>
    <_>
      <rects>
        <_>
          9 32 4 8 -1.</_>
        <_>
          9 32 2 4 2.</_>
        <_>
          11 36 2 4 2.</_></rects>
      <tilted>0</tilted></_>
    <_>
      <rects>
        <_>
          10 7 1 8 -1.</_>
        <_>
          10 11 1 4 2.</_></rects>
      <tilted>0</tilted></_>
    <_>
      <rects>
        <_>
          11 6 6 20 -1.</_>
        <_>
          11 6 3 10 2.</_>
        <_>
          14 16 3 10 2.</_></rects>
      <tilted>0</tilted></_>
    <_>
      <rects>
        <_>
          11 6 5 12 -1.</_>
        <_>
          11 12 5 6 2.</_></rects>
      <tilted>0</tilted></_>
    <_>
      <rects>
        <_>
          11 8 4 10 -1.</_>
        <_>
          11 8 2 5 2.</_>
        <_>
          13 13 2 5 2.</_></rects>
      <tilted>0</tilted></_>
    <_>
      <rects>
        <_>
          11 12 9 17 -1.</_>
        <_>
          14 12 3 17 3.</_></rects>
      <tilted>0</tilted></_>
    <_>
      <rects>
        <_>
          11 20 4 12 -1.</_>
        <_>
          13 20 2 12 2.</_></rects>
      <tilted>0</tilted></_>
    <_>
      <rects>
        <_>
          11 27 8 18 -1.</_>
        <_>
          11 33 8 6 3.</_></rects>
      <tilted>0</tilted></_>
    <_>
      <rects>
        <_>
          11 28 7 18 -1.</_>
        <_>
          11 34 7 6 3.</_></rects>
      <tilted>0</tilted></_>
    <_>
      <rects>
        <_>
          12 13 9 32 -1.</_>
        <_>
          15 13 3 32 3.</_></rects>
      <tilted>0</tilted></_>
    <_>
      <rects>
        <_>
          12 18 3 2 -1.</_>
        <_>
          12 19 3 1 2.</_></rects>
      <tilted>0</tilted></_>
    <_>
      <rects>
        <_>
          15 6 2 6 -1.</_>
        <_>
          16 6 1 6 2.</_></rects>
      <tilted>0</tilted></_>
    <_>
      <rects>
        <_>
          16 26 2 8 -1.</_>
        <_>
          16 26 1 4 2.</_>
        <_>
          17 30 1 4 2.</_></rects>
      <tilted>0</tilted></_>
    <_>
      <rects>
        <_>
          17 1 6 15 -1.</_>
        <_>
          19 1 2 15 3.</_></rects>
      <tilted>0</tilted></_>
    <_>
      <rects>
        <_>
          17 5 2 24 -1.</_>
        <_>
          17 13 2 8 3.</_></rects>
      <tilted>0</tilted></_>
    <_>
      <rects>
        <_>
          17 31 1 15 -1.</_>
        <_>
          17 36 1 5 3.</_></rects>
      <tilted>0</tilted></_>
    <_>
      <rects>
        <_>
          18 3 2 29 -1.</_>
        <_>
          19 3 1 29 2.</_></rects>
      <tilted>0</tilted></_>
    <_>
      <rects>
        <_>
          18 20 2 19 -1.</_>
        <_>
          19 20 1 19 2.</_></rects>
      <tilted>0</tilted></_>
    <_>
      <rects>
        <_>
          18 40 2 2 -1.</_>
        <_>
          18 41 2 1 2.</_></rects>
      <tilted>0</tilted></_>
    <_>
      <rects>
        <_>
          21 0 2 2 -1.</_>
        <_>
          21 1 2 1 2.</_></rects>
      <tilted>0</tilted></_>
    <_>
      <rects>
        <_>
          22 0 2 6 -1.</_>
        <_>
          22 3 2 3 2.</_></rects>
      <tilted>0</tilted></_>
    <_>
      <rects>
        <_>
          22 11 2 26 -1.</_>
        <_>
          23 11 1 26 2.</_></rects>
      <tilted>0</tilted></_></features></cascade>
</opencv_storage>
