<?xml version="1.0"?>
<opencv_storage>
<cascade>
  <stageType>BOOST</stageType>
  <featureType>HAAR</featureType>
  <height>32</height>
  <width>32</width>
  <stageParams>
    <boostType>GAB</boostType>
    <minHitRate>9.9500000476837158e-01</minHitRate>
    <maxFalseAlarm>5.0000000000000000e-01</maxFalseAlarm>
    <weightTrimRate>9.4999998807907104e-01</weightTrimRate>
    <maxDepth>1</maxDepth>
    <maxWeakCount>100</maxWeakCount></stageParams>
  <featureParams>
    <maxCatCount>0</maxCatCount>
    <featSize>1</featSize>
    <mode>BASIC</mode></featureParams>
  <stageNum>20</stageNum>
  <stages>
    <!-- stage 0 -->
    <_>
      <maxWeakCount>3</maxWeakCount>
      <stageThreshold>-4.4586166739463806e-01</stageThreshold>
      <weakClassifiers>
        <_>
          <internalNodes>
            0 -1 29 1.2777525000274181e-02</internalNodes>
          <leafValues>
            -6.0000002384185791e-01 4.1463413834571838e-01</leafValues></_>
        <_>
          <internalNodes>
            0 -1 69 2.8270469047129154e-03</internalNodes>
          <leafValues>
            -4.3839997053146362e-01 5.9625500440597534e-01</leafValues></_>
        <_>
          <internalNodes>
            0 -1 2 1.4614288695156574e-02</internalNodes>
          <leafValues>
            -4.2209586501121521e-01 5.9342789649963379e-01</leafValues></_></weakClassifiers></_>
    <!-- stage 1 -->
    <_>
      <maxWeakCount>3</maxWeakCount>
      <stageThreshold>-5.8394891023635864e-01</stageThreshold>
      <weakClassifiers>
        <_>
          <internalNodes>
            0 -1 27 -8.1395730376243591e-03</internalNodes>
          <leafValues>
            4.3589743971824646e-01 -5.9090906381607056e-01</leafValues></_>
        <_>
          <internalNodes>
            0 -1 59 1.1103316210210323e-02</internalNodes>
          <leafValues>
            -5.1464301347732544e-01 4.3720078468322754e-01</leafValues></_>
        <_>
          <internalNodes>
            0 -1 22 5.9637136757373810e-02</internalNodes>
          <leafValues>
            -4.3024060130119324e-01 6.2138468027114868e-01</leafValues></_></weakClassifiers></_>
    <!-- stage 2 -->
    <_>
      <maxWeakCount>5</maxWeakCount>
      <stageThreshold>-6.6152763366699219e-01</stageThreshold>
      <weakClassifiers>
        <_>
          <internalNodes>
            0 -1 51 1.7222598195075989e-02</internalNodes>
          <leafValues>
            -6.0629922151565552e-01 3.6363637447357178e-01</leafValues></_>
        <_>
          <internalNodes>
            0 -1 92 3.8112248294055462e-03</internalNodes>
          <leafValues>
            2.2412672638893127e-01 -7.3176693916320801e-01</leafValues></_>
        <_>
          <internalNodes>
            0 -1 62 -2.0923479460179806e-03</internalNodes>
          <leafValues>
            6.8148225545883179e-01 -3.6484232544898987e-01</leafValues></_>
        <_>
          <internalNodes>
            0 -1 7 -2.5432417169213295e-04</internalNodes>
          <leafValues>
            -4.9366423487663269e-01 4.3231102824211121e-01</leafValues></_>
        <_>
          <internalNodes>
            0 -1 37 7.2072101756930351e-03</internalNodes>
          <leafValues>
            -3.4682384133338928e-01 7.0144611597061157e-01</leafValues></_></weakClassifiers></_>
    <!-- stage 3 -->
    <_>
      <maxWeakCount>5</maxWeakCount>
      <stageThreshold>-1.2409750223159790e+00</stageThreshold>
      <weakClassifiers>
        <_>
          <internalNodes>
            0 -1 91 -7.5100606773048639e-04</internalNodes>
          <leafValues>
            6.3291139900684357e-02 -7.1739131212234497e-01</leafValues></_>
        <_>
          <internalNodes>
            0 -1 66 -6.0071627376601100e-04</internalNodes>
          <leafValues>
            4.4367158412933350e-01 -5.0327724218368530e-01</leafValues></_>
        <_>
          <internalNodes>
            0 -1 46 -3.7873121909797192e-03</internalNodes>
          <leafValues>
            6.8554359674453735e-01 -3.3009323477745056e-01</leafValues></_>
        <_>
          <internalNodes>
            0 -1 4 1.1513915378600359e-03</internalNodes>
          <leafValues>
            -4.0090811252593994e-01 5.7183736562728882e-01</leafValues></_>
        <_>
          <internalNodes>
            0 -1 79 -2.8547025285661221e-03</internalNodes>
          <leafValues>
            8.3986687660217285e-01 -2.6205056905746460e-01</leafValues></_></weakClassifiers></_>
    <!-- stage 4 -->
    <_>
      <maxWeakCount>4</maxWeakCount>
      <stageThreshold>-2.8055953979492188e-01</stageThreshold>
      <weakClassifiers>
        <_>
          <internalNodes>
            0 -1 60 -8.4358930587768555e-02</internalNodes>
          <leafValues>
            7.3333334922790527e-01 -5.8865249156951904e-01</leafValues></_>
        <_>
          <internalNodes>
            0 -1 78 1.7337489873170853e-02</internalNodes>
          <leafValues>
            -3.6765232682228088e-01 9.0367072820663452e-01</leafValues></_>
        <_>
          <internalNodes>
            0 -1 48 -3.6575208650901914e-04</internalNodes>
          <leafValues>
            -8.0785411596298218e-01 3.7950861454010010e-01</leafValues></_>
        <_>
          <internalNodes>
            0 -1 44 -3.3417277038097382e-02</internalNodes>
          <leafValues>
            -8.5816943645477295e-01 2.9623663425445557e-01</leafValues></_></weakClassifiers></_>
    <!-- stage 5 -->
    <_>
      <maxWeakCount>4</maxWeakCount>
      <stageThreshold>-5.5255484580993652e-01</stageThreshold>
      <weakClassifiers>
        <_>
          <internalNodes>
            0 -1 71 -3.9199165999889374e-02</internalNodes>
          <leafValues>
            5.1351350545883179e-01 -5.9701490402221680e-01</leafValues></_>
        <_>
          <internalNodes>
            0 -1 25 -7.4501563794910908e-03</internalNodes>
          <leafValues>
            5.4481828212738037e-01 -4.2899084091186523e-01</leafValues></_>
        <_>
          <internalNodes>
            0 -1 3 -1.3565579429268837e-03</internalNodes>
          <leafValues>
            -8.6491823196411133e-01 2.4558794498443604e-01</leafValues></_>
        <_>
          <internalNodes>
            0 -1 49 -2.6767356321215630e-03</internalNodes>
          <leafValues>
            -6.1534982919692993e-01 3.6456003785133362e-01</leafValues></_></weakClassifiers></_>
    <!-- stage 6 -->
    <_>
      <maxWeakCount>5</maxWeakCount>
      <stageThreshold>-4.8942437767982483e-01</stageThreshold>
      <weakClassifiers>
        <_>
          <internalNodes>
            0 -1 30 -6.2861777842044830e-03</internalNodes>
          <leafValues>
            8.8888889551162720e-01 -5.0326800346374512e-01</leafValues></_>
        <_>
          <internalNodes>
            0 -1 57 -7.0535377599298954e-03</internalNodes>
          <leafValues>
            3.7858572602272034e-01 -5.7870554924011230e-01</leafValues></_>
        <_>
          <internalNodes>
            0 -1 16 -6.6958065144717693e-04</internalNodes>
          <leafValues>
            -6.4987415075302124e-01 3.6535963416099548e-01</leafValues></_>
        <_>
          <internalNodes>
            0 -1 85 -2.6740105822682381e-03</internalNodes>
          <leafValues>
            5.6601834297180176e-01 -3.8104611635208130e-01</leafValues></_>
        <_>
          <internalNodes>
            0 -1 8 1.4264662750065327e-02</internalNodes>
          <leafValues>
            -2.8088629245758057e-01 8.2926160097122192e-01</leafValues></_></weakClassifiers></_>
    <!-- stage 7 -->
    <_>
      <maxWeakCount>4</maxWeakCount>
      <stageThreshold>-7.3104852437973022e-01</stageThreshold>
      <weakClassifiers>
        <_>
          <internalNodes>
            0 -1 54 -3.9742335677146912e-02</internalNodes>
          <leafValues>
            4.5454546809196472e-01 -5.5072462558746338e-01</leafValues></_>
        <_>
          <internalNodes>
            0 -1 75 1.0744205210357904e-03</internalNodes>
          <leafValues>
            2.1594627201557159e-01 -7.7744132280349731e-01</leafValues></_>
        <_>
          <internalNodes>
            0 -1 31 -9.1139879077672958e-04</internalNodes>
          <leafValues>
            -7.7419716119766235e-01 2.2304673492908478e-01</leafValues></_>
        <_>
          <internalNodes>
            0 -1 0 5.9383065672591329e-04</internalNodes>
          <leafValues>
            -5.2199739217758179e-01 3.7407073378562927e-01</leafValues></_></weakClassifiers></_>
    <!-- stage 8 -->
    <_>
      <maxWeakCount>6</maxWeakCount>
      <stageThreshold>-6.4845836162567139e-01</stageThreshold>
      <weakClassifiers>
        <_>
          <internalNodes>
            0 -1 13 8.1194490194320679e-02</internalNodes>
          <leafValues>
            -5.0649350881576538e-01 1.</leafValues></_>
        <_>
          <internalNodes>
            0 -1 73 5.5884738685563207e-05</internalNodes>
          <leafValues>
            -7.9413670301437378e-01 3.7314572930335999e-01</leafValues></_>
        <_>
          <internalNodes>
            0 -1 17 1.3396047055721283e-01</internalNodes>
          <leafValues>
            -2.7758446335792542e-01 8.4636843204498291e-01</leafValues></_>
        <_>
          <internalNodes>
            0 -1 90 8.0092810094356537e-04</internalNodes>
          <leafValues>
            3.4579473733901978e-01 -8.8169151544570923e-01</leafValues></_>
        <_>
          <internalNodes>
            0 -1 11 1.9825480878353119e-02</internalNodes>
          <leafValues>
            -2.9438006877899170e-01 8.7248003482818604e-01</leafValues></_>
        <_>
          <internalNodes>
            0 -1 15 -4.7248017042875290e-02</internalNodes>
          <leafValues>
            1. -1.8540744483470917e-01</leafValues></_></weakClassifiers></_>
    <!-- stage 9 -->
    <_>
      <maxWeakCount>3</maxWeakCount>
      <stageThreshold>-4.7632691264152527e-01</stageThreshold>
      <weakClassifiers>
        <_>
          <internalNodes>
            0 -1 9 2.1562379598617554e-01</internalNodes>
          <leafValues>
            -4.9677419662475586e-01 1.</leafValues></_>
        <_>
          <internalNodes>
            0 -1 56 4.5876484364271164e-04</internalNodes>
          <leafValues>
            -4.8649007081985474e-01 4.3193882703781128e-01</leafValues></_>
        <_>
          <internalNodes>
            0 -1 23 1.3298506382852793e-04</internalNodes>
          <leafValues>
            -4.1149154305458069e-01 5.1396274566650391e-01</leafValues></_></weakClassifiers></_>
    <!-- stage 10 -->
    <_>
      <maxWeakCount>4</maxWeakCount>
      <stageThreshold>-5.1706844568252563e-01</stageThreshold>
      <weakClassifiers>
        <_>
          <internalNodes>
            0 -1 20 1.0659253597259521e-01</internalNodes>
          <leafValues>
            -4.5911949872970581e-01 1.</leafValues></_>
        <_>
          <internalNodes>
            0 -1 21 2.4628272512927651e-05</internalNodes>
          <leafValues>
            -4.7750920057296753e-01 4.2936629056930542e-01</leafValues></_>
        <_>
          <internalNodes>
            0 -1 43 -2.2055616136640310e-03</internalNodes>
          <leafValues>
            -8.3675801753997803e-01 2.3717874288558960e-01</leafValues></_>
        <_>
          <internalNodes>
            0 -1 95 -1.5013102711236570e-05</internalNodes>
          <leafValues>
            3.4944275021553040e-01 -6.1790376901626587e-01</leafValues></_></weakClassifiers></_>
    <!-- stage 11 -->
    <_>
      <maxWeakCount>5</maxWeakCount>
      <stageThreshold>-9.4311338663101196e-01</stageThreshold>
      <weakClassifiers>
        <_>
          <internalNodes>
            0 -1 32 1.1589763686060905e-02</internalNodes>
          <leafValues>
            -5.2380955219268799e-01 6.6666668653488159e-01</leafValues></_>
        <_>
          <internalNodes>
            0 -1 52 -5.1189801888540387e-04</internalNodes>
          <leafValues>
            -5.9720343351364136e-01 3.3293476700782776e-01</leafValues></_>
        <_>
          <internalNodes>
            0 -1 88 -1.1088000610470772e-03</internalNodes>
          <leafValues>
            -8.2921928167343140e-01 2.1719008684158325e-01</leafValues></_>
        <_>
          <internalNodes>
            0 -1 55 -2.4550096131861210e-03</internalNodes>
          <leafValues>
            8.6623185873031616e-01 -2.9457941651344299e-01</leafValues></_>
        <_>
          <internalNodes>
            0 -1 77 -2.5625927373766899e-03</internalNodes>
          <leafValues>
            -8.1891614198684692e-01 2.8599834442138672e-01</leafValues></_></weakClassifiers></_>
    <!-- stage 12 -->
    <_>
      <maxWeakCount>6</maxWeakCount>
      <stageThreshold>-1.3097755908966064e+00</stageThreshold>
      <weakClassifiers>
        <_>
          <internalNodes>
            0 -1 24 1.2998552992939949e-02</internalNodes>
          <leafValues>
            1.0752688162028790e-02 -7.9487180709838867e-01</leafValues></_>
        <_>
          <internalNodes>
            0 -1 68 3.3250471460632980e-04</internalNodes>
          <leafValues>
            -4.3151479959487915e-01 4.5404577255249023e-01</leafValues></_>
        <_>
          <internalNodes>
            0 -1 83 -1.7365595558658242e-03</internalNodes>
          <leafValues>
            5.4572635889053345e-01 -3.7836369872093201e-01</leafValues></_>
        <_>
          <internalNodes>
            0 -1 80 -4.5524935558205470e-05</internalNodes>
          <leafValues>
            3.8294264674186707e-01 -4.8181992769241333e-01</leafValues></_>
        <_>
          <internalNodes>
            0 -1 36 -1.5583094500470906e-04</internalNodes>
          <leafValues>
            -6.7495119571685791e-01 3.1385216116905212e-01</leafValues></_>
        <_>
          <internalNodes>
            0 -1 12 6.5080821514129639e-04</internalNodes>
          <leafValues>
            -4.2261809110641479e-01 6.0872256755828857e-01</leafValues></_></weakClassifiers></_>
    <!-- stage 13 -->
    <_>
      <maxWeakCount>5</maxWeakCount>
      <stageThreshold>-4.4388604164123535e-01</stageThreshold>
      <weakClassifiers>
        <_>
          <internalNodes>
            0 -1 76 5.6099094450473785e-02</internalNodes>
          <leafValues>
            -4.6835443377494812e-01 1.</leafValues></_>
        <_>
          <internalNodes>
            0 -1 67 -8.4976376965641975e-03</internalNodes>
          <leafValues>
            6.8684667348861694e-01 -2.9159891605377197e-01</leafValues></_>
        <_>
          <internalNodes>
            0 -1 45 -1.0351961245760322e-03</internalNodes>
          <leafValues>
            -5.1682209968566895e-01 3.9062300324440002e-01</leafValues></_>
        <_>
          <internalNodes>
            0 -1 6 1.5622510109096766e-03</internalNodes>
          <leafValues>
            3.5184240341186523e-01 -6.3917624950408936e-01</leafValues></_>
        <_>
          <internalNodes>
            0 -1 33 -2.8236079961061478e-03</internalNodes>
          <leafValues>
            5.7613605260848999e-01 -4.1382506489753723e-01</leafValues></_></weakClassifiers></_>
    <!-- stage 14 -->
    <_>
      <maxWeakCount>5</maxWeakCount>
      <stageThreshold>-7.1524024009704590e-01</stageThreshold>
      <weakClassifiers>
        <_>
          <internalNodes>
            0 -1 18 1.6541941463947296e-01</internalNodes>
          <leafValues>
            -4.6835443377494812e-01 1.</leafValues></_>
        <_>
          <internalNodes>
            0 -1 84 -1.0895677842199802e-03</internalNodes>
          <leafValues>
            -8.1808006763458252e-01 2.2184951603412628e-01</leafValues></_>
        <_>
          <internalNodes>
            0 -1 5 1.6738888807594776e-03</internalNodes>
          <leafValues>
            -3.0567294359207153e-01 5.8404368162155151e-01</leafValues></_>
        <_>
          <internalNodes>
            0 -1 70 -4.0335758239962161e-04</internalNodes>
          <leafValues>
            -6.2742447853088379e-01 3.3439019322395325e-01</leafValues></_>
        <_>
          <internalNodes>
            0 -1 53 2.4963412433862686e-03</internalNodes>
          <leafValues>
            -3.4723961353302002e-01 5.7553166151046753e-01</leafValues></_></weakClassifiers></_>
    <!-- stage 15 -->
    <_>
      <maxWeakCount>6</maxWeakCount>
      <stageThreshold>-3.8216653466224670e-01</stageThreshold>
      <weakClassifiers>
        <_>
          <internalNodes>
            0 -1 14 9.8902860190719366e-04</internalNodes>
          <leafValues>
            -4.6835443377494812e-01 1.</leafValues></_>
        <_>
          <internalNodes>
            0 -1 86 -4.2551560327410698e-03</internalNodes>
          <leafValues>
            -8.1477862596511841e-01 2.1457931399345398e-01</leafValues></_>
        <_>
          <internalNodes>
            0 -1 61 3.4535280428826809e-04</internalNodes>
          <leafValues>
            -3.1165209412574768e-01 5.9522420167922974e-01</leafValues></_>
        <_>
          <internalNodes>
            0 -1 26 2.0279771706555039e-04</internalNodes>
          <leafValues>
            -4.6304273605346680e-01 4.4736075401306152e-01</leafValues></_>
        <_>
          <internalNodes>
            0 -1 10 -9.4258075114339590e-04</internalNodes>
          <leafValues>
            -7.6701134443283081e-01 3.0362287163734436e-01</leafValues></_>
        <_>
          <internalNodes>
            0 -1 35 -5.6535145267844200e-04</internalNodes>
          <leafValues>
            5.0291126966476440e-01 -5.0904321670532227e-01</leafValues></_></weakClassifiers></_>
    <!-- stage 16 -->
    <_>
      <maxWeakCount>7</maxWeakCount>
      <stageThreshold>-6.3073033094406128e-01</stageThreshold>
      <weakClassifiers>
        <_>
          <internalNodes>
            0 -1 96 2.4727643467485905e-03</internalNodes>
          <leafValues>
            -4.7435897588729858e-01 8.6666667461395264e-01</leafValues></_>
        <_>
          <internalNodes>
            0 -1 87 -4.9265207053394988e-05</internalNodes>
          <leafValues>
            -7.7784937620162964e-01 2.6658302545547485e-01</leafValues></_>
        <_>
          <internalNodes>
            0 -1 42 -5.4564215242862701e-03</internalNodes>
          <leafValues>
            -6.3534855842590332e-01 2.8758367896080017e-01</leafValues></_>
        <_>
          <internalNodes>
            0 -1 58 7.9503227025270462e-03</internalNodes>
          <leafValues>
            -3.0852127075195313e-01 6.8687742948532104e-01</leafValues></_>
        <_>
          <internalNodes>
            0 -1 39 2.6233488693833351e-02</internalNodes>
          <leafValues>
            3.2423093914985657e-01 -6.5533739328384399e-01</leafValues></_>
        <_>
          <internalNodes>
            0 -1 28 -5.0386330112814903e-03</internalNodes>
          <leafValues>
            6.3749474287033081e-01 -3.4919509291648865e-01</leafValues></_>
        <_>
          <internalNodes>
            0 -1 19 -1.5071528032422066e-02</internalNodes>
          <leafValues>
            8.1856662034988403e-01 -3.1931009888648987e-01</leafValues></_></weakClassifiers></_>
    <!-- stage 17 -->
    <_>
      <maxWeakCount>7</maxWeakCount>
      <stageThreshold>-1.0992994308471680e+00</stageThreshold>
      <weakClassifiers>
        <_>
          <internalNodes>
            0 -1 82 -4.7858157195150852e-03</internalNodes>
          <leafValues>
            3.9393940567970276e-01 -5.3623187541961670e-01</leafValues></_>
        <_>
          <internalNodes>
            0 -1 81 8.2823131233453751e-03</internalNodes>
          <leafValues>
            -2.2680145502090454e-01 8.5763889551162720e-01</leafValues></_>
        <_>
          <internalNodes>
            0 -1 41 -6.2797567807137966e-05</internalNodes>
          <leafValues>
            4.8537415266036987e-01 -3.3178752660751343e-01</leafValues></_>
        <_>
          <internalNodes>
            0 -1 63 2.0441059023141861e-03</internalNodes>
          <leafValues>
            -3.0432400107383728e-01 5.9789967536926270e-01</leafValues></_>
        <_>
          <internalNodes>
            0 -1 40 4.2103175073862076e-03</internalNodes>
          <leafValues>
            2.8827562928199768e-01 -6.7247551679611206e-01</leafValues></_>
        <_>
          <internalNodes>
            0 -1 93 -1.7957626841962337e-03</internalNodes>
          <leafValues>
            -5.7040733098983765e-01 3.6598011851310730e-01</leafValues></_>
        <_>
          <internalNodes>
            0 -1 38 -1.9375213887542486e-03</internalNodes>
          <leafValues>
            6.6886109113693237e-01 -3.2024654746055603e-01</leafValues></_></weakClassifiers></_>
    <!-- stage 18 -->
    <_>
      <maxWeakCount>6</maxWeakCount>
      <stageThreshold>-6.5484720468521118e-01</stageThreshold>
      <weakClassifiers>
        <_>
          <internalNodes>
            0 -1 94 1.0565145639702678e-03</internalNodes>
          <leafValues>
            -4.7096773982048035e-01 7.5000000000000000e-01</leafValues></_>
        <_>
          <internalNodes>
            0 -1 50 2.3656750563532114e-03</internalNodes>
          <leafValues>
            2.8097540140151978e-01 -6.4118385314941406e-01</leafValues></_>
        <_>
          <internalNodes>
            0 -1 64 8.0710498150438070e-04</internalNodes>
          <leafValues>
            2.7406030893325806e-01 -7.0664149522781372e-01</leafValues></_>
        <_>
          <internalNodes>
            0 -1 98 -3.0467740725725889e-04</internalNodes>
          <leafValues>
            -5.9350341558456421e-01 3.2439088821411133e-01</leafValues></_>
        <_>
          <internalNodes>
            0 -1 72 -3.8302791654132307e-04</internalNodes>
          <leafValues>
            6.2754029035568237e-01 -3.3846256136894226e-01</leafValues></_>
        <_>
          <internalNodes>
            0 -1 74 8.8659692555665970e-03</internalNodes>
          <leafValues>
            2.8491958975791931e-01 -7.2484356164932251e-01</leafValues></_></weakClassifiers></_>
    <!-- stage 19 -->
    <_>
      <maxWeakCount>6</maxWeakCount>
      <stageThreshold>-5.4949772357940674e-01</stageThreshold>
      <weakClassifiers>
        <_>
          <internalNodes>
            0 -1 97 -1.7697594594210386e-03</internalNodes>
          <leafValues>
            4.1935482621192932e-01 -5.2857142686843872e-01</leafValues></_>
        <_>
          <internalNodes>
            0 -1 89 3.6825295537710190e-03</internalNodes>
          <leafValues>
            2.6104286313056946e-01 -6.8851321935653687e-01</leafValues></_>
        <_>
          <internalNodes>
            0 -1 1 1.2222249060869217e-02</internalNodes>
          <leafValues>
            1.8211115896701813e-01 -8.1772339344024658e-01</leafValues></_>
        <_>
          <internalNodes>
            0 -1 47 1.0197161464020610e-03</internalNodes>
          <leafValues>
            4.5620423555374146e-01 -4.3537309765815735e-01</leafValues></_>
        <_>
          <internalNodes>
            0 -1 34 -6.9835255853831768e-03</internalNodes>
          <leafValues>
            6.3990849256515503e-01 -3.2996645569801331e-01</leafValues></_>
        <_>
          <internalNodes>
            0 -1 65 1.5773621271364391e-05</internalNodes>
          <leafValues>
            -4.9198061227798462e-01 4.0951645374298096e-01</leafValues></_></weakClassifiers></_></stages>
  <features>
    <_>
      <rects>
        <_>
          0 0 2 21 -1.</_>
        <_>
          1 0 1 21 2.</_></rects>
      <tilted>0</tilted></_>
    <_>
      <rects>
        <_>
          0 6 27 1 -1.</_>
        <_>
          9 6 9 1 3.</_></rects>
      <tilted>0</tilted></_>
    <_>
      <rects>
        <_>
          0 8 12 10 -1.</_>
        <_>
          6 8 6 10 2.</_></rects>
      <tilted>0</tilted></_>
    <_>
      <rects>
        <_>
          0 10 9 3 -1.</_>
        <_>
          0 11 9 1 3.</_></rects>
      <tilted>0</tilted></_>
    <_>
      <rects>
        <_>
          0 12 2 17 -1.</_>
        <_>
          1 12 1 17 2.</_></rects>
      <tilted>0</tilted></_>
    <_>
      <rects>
        <_>
          0 13 6 2 -1.</_>
        <_>
          2 13 2 2 3.</_></rects>
      <tilted>0</tilted></_>
    <_>
      <rects>
        <_>
          1 0 2 26 -1.</_>
        <_>
          1 0 1 13 2.</_>
        <_>
          2 13 1 13 2.</_></rects>
      <tilted>0</tilted></_>
    <_>
      <rects>
        <_>
          1 0 3 9 -1.</_>
        <_>
          1 3 3 3 3.</_></rects>
      <tilted>0</tilted></_>
    <_>
      <rects>
        <_>
          1 5 20 6 -1.</_>
        <_>
          1 5 10 3 2.</_>
        <_>
          11 8 10 3 2.</_></rects>
      <tilted>0</tilted></_>
    <_>
      <rects>
        <_>
          1 5 24 27 -1.</_>
        <_>
          1 14 24 9 3.</_></rects>
      <tilted>0</tilted></_>
    <_>
      <rects>
        <_>
          1 11 1 6 -1.</_>
        <_>
          1 13 1 2 3.</_></rects>
      <tilted>0</tilted></_>
    <_>
      <rects>
        <_>
          1 11 12 11 -1.</_>
        <_>
          5 11 4 11 3.</_></rects>
      <tilted>0</tilted></_>
    <_>
      <rects>
        <_>
          1 24 6 1 -1.</_>
        <_>
          3 24 2 1 3.</_></rects>
      <tilted>0</tilted></_>
    <_>
      <rects>
        <_>
          2 0 26 15 -1.</_>
        <_>
          2 5 26 5 3.</_></rects>
      <tilted>0</tilted></_>
    <_>
      <rects>
        <_>
          2 10 3 1 -1.</_>
        <_>
          3 10 1 1 3.</_></rects>
      <tilted>0</tilted></_>
    <_>
      <rects>
        <_>
          2 14 13 18 -1.</_>
        <_>
          2 20 13 6 3.</_></rects>
      <tilted>0</tilted></_>
    <_>
      <rects>
        <_>
          3 3 4 2 -1.</_>
        <_>
          5 3 2 2 2.</_></rects>
      <tilted>0</tilted></_>
    <_>
      <rects>
        <_>
          3 3 24 24 -1.</_>
        <_>
          3 11 24 8 3.</_></rects>
      <tilted>0</tilted></_>
    <_>
      <rects>
        <_>
          3 10 21 20 -1.</_>
        <_>
          10 10 7 20 3.</_></rects>
      <tilted>0</tilted></_>
    <_>
      <rects>
        <_>
          3 12 6 20 -1.</_>
        <_>
          5 12 2 20 3.</_></rects>
      <tilted>0</tilted></_>
    <_>
      <rects>
        <_>
          3 23 24 7 -1.</_>
        <_>
          11 23 8 7 3.</_></rects>
      <tilted>0</tilted></_>
    <_>
      <rects>
        <_>
          4 15 1 2 -1.</_>
        <_>
          4 16 1 1 2.</_></rects>
      <tilted>0</tilted></_>
    <_>
      <rects>
        <_>
          5 5 16 27 -1.</_>
        <_>
          5 14 16 9 3.</_></rects>
      <tilted>0</tilted></_>
    <_>
      <rects>
        <_>
          5 6 2 3 -1.</_>
        <_>
          6 6 1 3 2.</_></rects>
      <tilted>0</tilted></_>
    <_>
      <rects>
        <_>
          5 6 22 26 -1.</_>
        <_>
          5 19 22 13 2.</_></rects>
      <tilted>0</tilted></_>
    <_>
      <rects>
        <_>
          5 8 6 20 -1.</_>
        <_>
          7 8 2 20 3.</_></rects>
      <tilted>0</tilted></_>
    <_>
      <rects>
        <_>
          5 12 3 5 -1.</_>
        <_>
          6 12 1 5 3.</_></rects>
      <tilted>0</tilted></_>
    <_>
      <rects>
        <_>
          5 13 6 10 -1.</_>
        <_>
          7 13 2 10 3.</_></rects>
      <tilted>0</tilted></_>
    <_>
      <rects>
        <_>
          5 14 6 7 -1.</_>
        <_>
          7 14 2 7 3.</_></rects>
      <tilted>0</tilted></_>
    <_>
      <rects>
        <_>
          5 15 18 3 -1.</_>
        <_>
          11 15 6 3 3.</_></rects>
      <tilted>0</tilted></_>
    <_>
      <rects>
        <_>
          6 0 10 4 -1.</_>
        <_>
          6 0 5 2 2.</_>
        <_>
          11 2 5 2 2.</_></rects>
      <tilted>0</tilted></_>
    <_>
      <rects>
        <_>
          8 1 3 3 -1.</_>
        <_>
          9 1 1 3 3.</_></rects>
      <tilted>0</tilted></_>
    <_>
      <rects>
        <_>
          8 1 9 6 -1.</_>
        <_>
          8 3 9 2 3.</_></rects>
      <tilted>0</tilted></_>
    <_>
      <rects>
        <_>
          8 2 7 6 -1.</_>
        <_>
          8 5 7 3 2.</_></rects>
      <tilted>0</tilted></_>
    <_>
      <rects>
        <_>
          8 9 18 6 -1.</_>
        <_>
          8 9 9 3 2.</_>
        <_>
          17 12 9 3 2.</_></rects>
      <tilted>0</tilted></_>
    <_>
      <rects>
        <_>
          8 17 6 11 -1.</_>
        <_>
          10 17 2 11 3.</_></rects>
      <tilted>0</tilted></_>
    <_>
      <rects>
        <_>
          8 28 2 1 -1.</_>
        <_>
          9 28 1 1 2.</_></rects>
      <tilted>0</tilted></_>
    <_>
      <rects>
        <_>
          9 0 12 8 -1.</_>
        <_>
          9 0 6 4 2.</_>
        <_>
          15 4 6 4 2.</_></rects>
      <tilted>0</tilted></_>
    <_>
      <rects>
        <_>
          9 1 4 10 -1.</_>
        <_>
          9 1 2 5 2.</_>
        <_>
          11 6 2 5 2.</_></rects>
      <tilted>0</tilted></_>
    <_>
      <rects>
        <_>
          9 6 16 26 -1.</_>
        <_>
          9 19 16 13 2.</_></rects>
      <tilted>0</tilted></_>
    <_>
      <rects>
        <_>
          9 15 8 6 -1.</_>
        <_>
          9 17 8 2 3.</_></rects>
      <tilted>0</tilted></_>
    <_>
      <rects>
        <_>
          9 19 3 1 -1.</_>
        <_>
          10 19 1 1 3.</_></rects>
      <tilted>0</tilted></_>
    <_>
      <rects>
        <_>
          10 22 5 9 -1.</_>
        <_>
          10 25 5 3 3.</_></rects>
      <tilted>0</tilted></_>
    <_>
      <rects>
        <_>
          10 23 14 2 -1.</_>
        <_>
          10 23 7 1 2.</_>
        <_>
          17 24 7 1 2.</_></rects>
      <tilted>0</tilted></_>
    <_>
      <rects>
        <_>
          11 10 6 18 -1.</_>
        <_>
          11 19 6 9 2.</_></rects>
      <tilted>0</tilted></_>
    <_>
      <rects>
        <_>
          11 15 12 6 -1.</_>
        <_>
          11 15 6 3 2.</_>
        <_>
          17 18 6 3 2.</_></rects>
      <tilted>0</tilted></_>
    <_>
      <rects>
        <_>
          12 7 4 12 -1.</_>
        <_>
          12 7 2 6 2.</_>
        <_>
          14 13 2 6 2.</_></rects>
      <tilted>0</tilted></_>
    <_>
      <rects>
        <_>
          12 8 8 2 -1.</_>
        <_>
          16 8 4 2 2.</_></rects>
      <tilted>0</tilted></_>
    <_>
      <rects>
        <_>
          12 17 1 3 -1.</_>
        <_>
          12 18 1 1 3.</_></rects>
      <tilted>0</tilted></_>
    <_>
      <rects>
        <_>
          12 22 11 6 -1.</_>
        <_>
          12 24 11 2 3.</_></rects>
      <tilted>0</tilted></_>
    <_>
      <rects>
        <_>
          13 8 3 12 -1.</_>
        <_>
          13 12 3 4 3.</_></rects>
      <tilted>0</tilted></_>
    <_>
      <rects>
        <_>
          13 10 12 15 -1.</_>
        <_>
          17 10 4 15 3.</_></rects>
      <tilted>0</tilted></_>
    <_>
      <rects>
        <_>
          13 22 6 1 -1.</_>
        <_>
          16 22 3 1 2.</_></rects>
      <tilted>0</tilted></_>
    <_>
      <rects>
        <_>
          14 4 3 21 -1.</_>
        <_>
          15 4 1 21 3.</_></rects>
      <tilted>0</tilted></_>
    <_>
      <rects>
        <_>
          14 7 18 6 -1.</_>
        <_>
          23 7 9 6 2.</_></rects>
      <tilted>0</tilted></_>
    <_>
      <rects>
        <_>
          15 16 3 6 -1.</_>
        <_>
          16 16 1 6 3.</_></rects>
      <tilted>0</tilted></_>
    <_>
      <rects>
        <_>
          15 22 13 2 -1.</_>
        <_>
          15 23 13 1 2.</_></rects>
      <tilted>0</tilted></_>
    <_>
      <rects>
        <_>
          15 23 11 8 -1.</_>
        <_>
          15 27 11 4 2.</_></rects>
      <tilted>0</tilted></_>
    <_>
      <rects>
        <_>
          16 0 6 21 -1.</_>
        <_>
          18 0 2 21 3.</_></rects>
      <tilted>0</tilted></_>
    <_>
      <rects>
        <_>
          16 0 10 12 -1.</_>
        <_>
          16 6 10 6 2.</_></rects>
      <tilted>0</tilted></_>
    <_>
      <rects>
        <_>
          16 8 16 24 -1.</_>
        <_>
          24 8 8 24 2.</_></rects>
      <tilted>0</tilted></_>
    <_>
      <rects>
        <_>
          16 26 2 3 -1.</_>
        <_>
          16 27 2 1 3.</_></rects>
      <tilted>0</tilted></_>
    <_>
      <rects>
        <_>
          17 0 6 6 -1.</_>
        <_>
          17 0 3 3 2.</_>
        <_>
          20 3 3 3 2.</_></rects>
      <tilted>0</tilted></_>
    <_>
      <rects>
        <_>
          17 5 3 11 -1.</_>
        <_>
          18 5 1 11 3.</_></rects>
      <tilted>0</tilted></_>
    <_>
      <rects>
        <_>
          17 17 8 2 -1.</_>
        <_>
          17 17 4 1 2.</_>
        <_>
          21 18 4 1 2.</_></rects>
      <tilted>0</tilted></_>
    <_>
      <rects>
        <_>
          17 18 4 2 -1.</_>
        <_>
          17 18 2 1 2.</_>
        <_>
          19 19 2 1 2.</_></rects>
      <tilted>0</tilted></_>
    <_>
      <rects>
        <_>
          17 23 3 4 -1.</_>
        <_>
          17 25 3 2 2.</_></rects>
      <tilted>0</tilted></_>
    <_>
      <rects>
        <_>
          17 23 15 6 -1.</_>
        <_>
          17 25 15 2 3.</_></rects>
      <tilted>0</tilted></_>
    <_>
      <rects>
        <_>
          18 16 2 6 -1.</_>
        <_>
          18 16 1 3 2.</_>
        <_>
          19 19 1 3 2.</_></rects>
      <tilted>0</tilted></_>
    <_>
      <rects>
        <_>
          18 24 8 4 -1.</_>
        <_>
          22 24 4 4 2.</_></rects>
      <tilted>0</tilted></_>
    <_>
      <rects>
        <_>
          19 1 3 2 -1.</_>
        <_>
          20 1 1 2 3.</_></rects>
      <tilted>0</tilted></_>
    <_>
      <rects>
        <_>
          19 7 12 15 -1.</_>
        <_>
          25 7 6 15 2.</_></rects>
      <tilted>0</tilted></_>
    <_>
      <rects>
        <_>
          20 4 3 1 -1.</_>
        <_>
          21 4 1 1 3.</_></rects>
      <tilted>0</tilted></_>
    <_>
      <rects>
        <_>
          20 7 1 6 -1.</_>
        <_>
          20 10 1 3 2.</_></rects>
      <tilted>0</tilted></_>
    <_>
      <rects>
        <_>
          21 6 4 9 -1.</_>
        <_>
          21 9 4 3 3.</_></rects>
      <tilted>0</tilted></_>
    <_>
      <rects>
        <_>
          21 23 1 6 -1.</_>
        <_>
          21 25 1 2 3.</_></rects>
      <tilted>0</tilted></_>
    <_>
      <rects>
        <_>
          22 0 9 24 -1.</_>
        <_>
          25 0 3 24 3.</_></rects>
      <tilted>0</tilted></_>
    <_>
      <rects>
        <_>
          22 9 10 3 -1.</_>
        <_>
          22 10 10 1 3.</_></rects>
      <tilted>0</tilted></_>
    <_>
      <rects>
        <_>
          22 12 6 18 -1.</_>
        <_>
          25 12 3 18 2.</_></rects>
      <tilted>0</tilted></_>
    <_>
      <rects>
        <_>
          22 18 4 6 -1.</_>
        <_>
          22 18 2 3 2.</_>
        <_>
          24 21 2 3 2.</_></rects>
      <tilted>0</tilted></_>
    <_>
      <rects>
        <_>
          24 20 4 3 -1.</_>
        <_>
          24 21 4 1 3.</_></rects>
      <tilted>0</tilted></_>
    <_>
      <rects>
        <_>
          25 10 3 18 -1.</_>
        <_>
          26 10 1 18 3.</_></rects>
      <tilted>0</tilted></_>
    <_>
      <rects>
        <_>
          25 13 3 19 -1.</_>
        <_>
          26 13 1 19 3.</_></rects>
      <tilted>0</tilted></_>
    <_>
      <rects>
        <_>
          25 28 5 4 -1.</_>
        <_>
          25 30 5 2 2.</_></rects>
      <tilted>0</tilted></_>
    <_>
      <rects>
        <_>
          26 0 4 6 -1.</_>
        <_>
          26 0 2 3 2.</_>
        <_>
          28 3 2 3 2.</_></rects>
      <tilted>0</tilted></_>
    <_>
      <rects>
        <_>
          26 1 4 12 -1.</_>
        <_>
          26 1 2 6 2.</_>
        <_>
          28 7 2 6 2.</_></rects>
      <tilted>0</tilted></_>
    <_>
      <rects>
        <_>
          26 10 6 12 -1.</_>
        <_>
          26 10 3 6 2.</_>
        <_>
          29 16 3 6 2.</_></rects>
      <tilted>0</tilted></_>
    <_>
      <rects>
        <_>
          26 17 2 8 -1.</_>
        <_>
          26 17 1 4 2.</_>
        <_>
          27 21 1 4 2.</_></rects>
      <tilted>0</tilted></_>
    <_>
      <rects>
        <_>
          26 18 5 3 -1.</_>
        <_>
          26 19 5 1 3.</_></rects>
      <tilted>0</tilted></_>
    <_>
      <rects>
        <_>
          26 20 2 12 -1.</_>
        <_>
          26 26 2 6 2.</_></rects>
      <tilted>0</tilted></_>
    <_>
      <rects>
        <_>
          26 25 4 2 -1.</_>
        <_>
          26 25 2 1 2.</_>
        <_>
          28 26 2 1 2.</_></rects>
      <tilted>0</tilted></_>
    <_>
      <rects>
        <_>
          28 3 2 28 -1.</_>
        <_>
          29 3 1 28 2.</_></rects>
      <tilted>0</tilted></_>
    <_>
      <rects>
        <_>
          28 14 2 12 -1.</_>
        <_>
          28 18 2 4 3.</_></rects>
      <tilted>0</tilted></_>
    <_>
      <rects>
        <_>
          28 18 3 12 -1.</_>
        <_>
          28 24 3 6 2.</_></rects>
      <tilted>0</tilted></_>
    <_>
      <rects>
        <_>
          28 19 3 1 -1.</_>
        <_>
          29 19 1 1 3.</_></rects>
      <tilted>0</tilted></_>
    <_>
      <rects>
        <_>
          28 25 2 5 -1.</_>
        <_>
          29 25 1 5 2.</_></rects>
      <tilted>0</tilted></_>
    <_>
      <rects>
        <_>
          29 13 3 4 -1.</_>
        <_>
          30 13 1 4 3.</_></rects>
      <tilted>0</tilted></_>
    <_>
      <rects>
        <_>
          30 23 2 8 -1.</_>
        <_>
          30 23 1 4 2.</_>
        <_>
          31 27 1 4 2.</_></rects>
      <tilted>0</tilted></_>
    <_>
      <rects>
        <_>
          31 6 1 4 -1.</_>
        <_>
          31 8 1 2 2.</_></rects>
      <tilted>0</tilted></_></features></cascade>
</opencv_storage>
