<?xml version="1.0"?>
<opencv_storage>
<stage6>
  <maxWeakCount>4</maxWeakCount>
  <stageThreshold>-1.3867068290710449e+00</stageThreshold>
  <weakClassifiers>
    <_>
      <internalNodes>
        0 -1 20727 -1 -4097 -53361 -20497 -1 -65537 -16466 -20561</internalNodes>
      <leafValues>
        -5.5234241485595703e-01 7.6695317029953003e-01</leafValues></_>
    <_>
      <internalNodes>
        0 -1 1266 -421790002 -493968021 -800620310 -388833046 -267691705
        9174559 -1631849489 -167777285</internalNodes>
      <leafValues>
        -7.6339775323867798e-01 5.0271040201187134e-01</leafValues></_>
    <_>
      <internalNodes>
        0 -1 15671 11828433 -167936001 -1073758211 -3194883 -33882130
        -196609 -81924 -1112011756</internalNodes>
      <leafValues>
        -5.9837353229522705e-01 6.5275174379348755e-01</leafValues></_>
    <_>
      <internalNodes>
        0 -1 30962 -251137150 -1018235953 -791293566 -489175809
        1631813703 1073974291 -222039297 -135792773</internalNodes>
      <leafValues>
        -7.3870134353637695e-01 5.2394306659698486e-01</leafValues></_></weakClassifiers></stage6>
</opencv_storage>
